digraph Tree {
node [shape=box, style="filled, rounded", color="black", fontname=helvetica] ;
edge [fontname=helvetica] ;
0 [label="sepal length (cm) <= 5.45\nentropy = 1.583\nsamples = 112\nvalue = [35, 39, 38]\nclass = versicolor", fillcolor="#39e58103"] ;
1 [label="sepal width (cm) <= 2.8\nentropy = 0.773\nsamples = 40\nvalue = [33, 6, 1]\nclass = setosa", fillcolor="#e58139ca"] ;
0 -> 1 [labeldistance=2.5, labelangle=45, headlabel="True"] ;
2 [label="sepal length (cm) <= 4.7\nentropy = 1.149\nsamples = 7\nvalue = [1, 5, 1]\nclass = versicolor", fillcolor="#39e581aa"] ;
1 -> 2 ;
3 [label="entropy = 0.0\nsamples = 1\nvalue = [1, 0, 0]\nclass = setosa", fillcolor="#e58139ff"] ;
2 -> 3 ;
4 [label="entropy = 0.65\nsamples = 6\nvalue = [0, 5, 1]\nclass = versicolor", fillcolor="#39e581cc"] ;
2 -> 4 ;
5 [label="sepal length (cm) <= 5.35\nentropy = 0.196\nsamples = 33\nvalue = [32, 1, 0]\nclass = setosa", fillcolor="#e58139f7"] ;
1 -> 5 ;
6 [label="entropy = 0.0\nsamples = 28\nvalue = [28, 0, 0]\nclass = setosa", fillcolor="#e58139ff"] ;
5 -> 6 ;
7 [label="entropy = 0.722\nsamples = 5\nvalue = [4, 1, 0]\nclass = setosa", fillcolor="#e58139bf"] ;
5 -> 7 ;
8 [label="sepal width (cm) <= 3.9\nentropy = 1.153\nsamples = 72\nvalue = [2, 33, 37]\nclass = virginica", fillcolor="#8139e51a"] ;
0 -> 8 [labeldistance=2.5, labelangle=-45, headlabel="False"] ;
9 [label="sepal length (cm) <= 7.05\nentropy = 0.998\nsamples = 70\nvalue = [0, 33, 37]\nclass = virginica", fillcolor="#8139e51c"] ;
8 -> 9 ;
10 [label="entropy = 0.993\nsamples = 60\nvalue = [0, 33, 27]\nclass = versicolor", fillcolor="#39e5812e"] ;
9 -> 10 ;
11 [label="entropy = 0.0\nsamples = 10\nvalue = [0, 0, 10]\nclass = virginica", fillcolor="#8139e5ff"] ;
9 -> 11 ;
12 [label="entropy = 0.0\nsamples = 2\nvalue = [2, 0, 0]\nclass = setosa", fillcolor="#e58139ff"] ;
8 -> 12 ;
}